<?xml version="1.0"?>
<opencv_storage>
<cascade>
  <stageType>BOOST</stageType>
  <featureType>HAAR</featureType>
  <height>46</height>
  <width>38</width>
  <stageParams>
    <boostType>GAB</boostType>
    <minHitRate>9.9500000476837158e-01</minHitRate>
    <maxFalseAlarm>5.0000000000000000e-01</maxFalseAlarm>
    <weightTrimRate>9.4999998807907104e-01</weightTrimRate>
    <maxDepth>1</maxDepth>
    <maxWeakCount>100</maxWeakCount></stageParams>
  <featureParams>
    <maxCatCount>0</maxCatCount>
    <featSize>1</featSize>
    <mode>BASIC</mode></featureParams>
  <stageNum>2</stageNum>
  <stages>
    <!-- stage 0 -->
    <_>
      <maxWeakCount>2</maxWeakCount>
      <stageThreshold>-1.9771702587604523e-01</stageThreshold>
      <weakClassifiers>
        <_>
          <internalNodes>
            0 -1 2 -1.1850398965179920e-02</internalNodes>
          <leafValues>
            8.4210526943206787e-01 -9.6363633871078491e-01</leafValues></_>
        <_>
          <internalNodes>
            0 -1 3 -1.0845795273780823e-02</internalNodes>
          <leafValues>
            7.6591932773590088e-01 -9.6648323535919189e-01</leafValues></_></weakClassifiers></_>
    <!-- stage 1 -->
    <_>
      <maxWeakCount>2</maxWeakCount>
      <stageThreshold>3.3333446830511093e-02</stageThreshold>
      <weakClassifiers>
        <_>
          <internalNodes>
            0 -1 0 -1.8845940940082073e-03</internalNodes>
          <leafValues>
            -9.6551722288131714e-01 1.</leafValues></_>
        <_>
          <internalNodes>
            0 -1 1 -8.3465557545423508e-03</internalNodes>
          <leafValues>
            1. -9.6666657924652100e-01</leafValues></_></weakClassifiers></_></stages>
  <features>
    <_>
      <rects>
        <_>
          0 0 1 18 -1.</_>
        <_>
          0 6 1 6 3.</_></rects>
      <tilted>0</tilted></_>
    <_>
      <rects>
        <_>
          0 29 22 9 -1.</_>
        <_>
          11 29 11 9 2.</_></rects>
      <tilted>0</tilted></_>
    <_>
      <rects>
        <_>
          5 3 32 18 -1.</_>
        <_>
          5 9 32 6 3.</_></rects>
      <tilted>0</tilted></_>
    <_>
      <rects>
        <_>
          22 2 16 16 -1.</_>
        <_>
          22 10 16 8 2.</_></rects>
      <tilted>0</tilted></_></features></cascade>
</opencv_storage>
